digraph Tree {
node [shape=box, style="filled, rounded", color="black", fontname=helvetica] ;
edge [fontname=helvetica] ;
0 [label="PetalLengthCm <= 2.6\nentropy = 1.584\nsamples = 105\nvalue = [36, 33, 36]\nclass = Iris-versicolor", fillcolor="#ffffff"] ;
1 [label="entropy = 0.0\nsamples = 36\nvalue = [36, 0, 0]\nclass = Iris-versicolor", fillcolor="#e58139"] ;
0 -> 1 [labeldistance=2.5, labelangle=45, headlabel="True"] ;
2 [label="PetalWidthCm <= 1.65\nentropy = 0.999\nsamples = 69\nvalue = [0, 33, 36]\nclass = Iris-virginica", fillcolor="#f5effd"] ;
0 -> 2 [labeldistance=2.5, labelangle=-45, headlabel="False"] ;
3 [label="PetalLengthCm <= 5.0\nentropy = 0.422\nsamples = 35\nvalue = [0, 32, 3]\nclass = Iris-setosa", fillcolor="#4ce78d"] ;
2 -> 3 ;
4 [label="entropy = 0.0\nsamples = 31\nvalue = [0, 31, 0]\nclass = Iris-setosa", fillcolor="#39e581"] ;
3 -> 4 ;
5 [label="entropy = 0.811\nsamples = 4\nvalue = [0, 1, 3]\nclass = Iris-virginica", fillcolor="#ab7bee"] ;
3 -> 5 ;
6 [label="PetalLengthCm <= 4.85\nentropy = 0.191\nsamples = 34\nvalue = [0, 1, 33]\nclass = Iris-virginica", fillcolor="#853fe6"] ;
2 -> 6 ;
7 [label="entropy = 0.811\nsamples = 4\nvalue = [0, 1, 3]\nclass = Iris-virginica", fillcolor="#ab7bee"] ;
6 -> 7 ;
8 [label="entropy = 0.0\nsamples = 30\nvalue = [0, 0, 30]\nclass = Iris-virginica", fillcolor="#8139e5"] ;
6 -> 8 ;
}